digraph Tree {
node [shape=box, style="filled, rounded", color="black", fontname=helvetica] ;
edge [fontname=helvetica] ;
0 [label="petal width (cm) <= 0.8\ngini = 0.66\nsamples = 93\nvalue = [59, 49, 42]\nclass = setosa", fillcolor="#fcf3eb"] ;
1 [label="gini = 0.0\nsamples = 36\nvalue = [59, 0, 0]\nclass = setosa", fillcolor="#e58139"] ;
0 -> 1 [labeldistance=2.5, labelangle=45, headlabel="True"] ;
2 [label="petal length (cm) <= 4.75\ngini = 0.5\nsamples = 57\nvalue = [0, 49, 42]\nclass = versicolor", fillcolor="#e3fbed"] ;
0 -> 2 [labeldistance=2.5, labelangle=-45, headlabel="False"] ;
3 [label="gini = 0.0\nsamples = 30\nvalue = [0, 48, 0]\nclass = versicolor", fillcolor="#39e581"] ;
2 -> 3 ;
4 [label="petal width (cm) <= 1.7\ngini = 0.05\nsamples = 27\nvalue = [0, 1, 42]\nclass = virginica", fillcolor="#843ee6"] ;
2 -> 4 ;
5 [label="petal width (cm) <= 1.55\ngini = 0.5\nsamples = 2\nvalue = [0, 1, 1]\nclass = versicolor", fillcolor="#ffffff"] ;
4 -> 5 ;
6 [label="gini = 0.0\nsamples = 1\nvalue = [0, 0, 1]\nclass = virginica", fillcolor="#8139e5"] ;
5 -> 6 ;
7 [label="gini = 0.0\nsamples = 1\nvalue = [0, 1, 0]\nclass = versicolor", fillcolor="#39e581"] ;
5 -> 7 ;
8 [label="gini = 0.0\nsamples = 25\nvalue = [0, 0, 41]\nclass = virginica", fillcolor="#8139e5"] ;
4 -> 8 ;
}